<?xml version="1.0"?>
<opencv_storage>
<cascade>
  <stageType>BOOST</stageType>
  <featureType>HAAR</featureType>
  <height>24</height>
  <width>24</width>
  <stageParams>
    <boostType>GAB</boostType>
    <minHitRate>9.9500000476837158e-01</minHitRate>
    <maxFalseAlarm>5.0000000000000000e-01</maxFalseAlarm>
    <weightTrimRate>9.4999999999999996e-01</weightTrimRate>
    <maxDepth>1</maxDepth>
    <maxWeakCount>100</maxWeakCount></stageParams>
  <featureParams>
    <maxCatCount>0</maxCatCount>
    <featSize>1</featSize>
    <mode>BASIC</mode></featureParams>
  <stageNum>10</stageNum>
  <stages>
    <!-- stage 0 -->
    <_>
      <maxWeakCount>6</maxWeakCount>
      <stageThreshold>-5.8342295885086060e-01</stageThreshold>
      <weakClassifiers>
        <_>
          <internalNodes>
            0 -1 28 8.4470674395561218e-02</internalNodes>
          <leafValues>
            -7.5879395008087158e-01 2.7536231279373169e-01</leafValues></_>
        <_>
          <internalNodes>
            0 -1 27 -1.0817397385835648e-01</internalNodes>
          <leafValues>
            6.4639633893966675e-01 -4.0984255075454712e-01</leafValues></_>
        <_>
          <internalNodes>
            0 -1 31 2.7744550257921219e-02</internalNodes>
          <leafValues>
            -5.6968027353286743e-01 5.4090309143066406e-01</leafValues></_>
        <_>
          <internalNodes>
            0 -1 50 -1.6185146523639560e-04</internalNodes>
          <leafValues>
            -7.0271247625350952e-01 3.0547115206718445e-01</leafValues></_>
        <_>
          <internalNodes>
            0 -1 7 -3.4357554977759719e-04</internalNodes>
          <leafValues>
            -8.3837777376174927e-01 2.5956314802169800e-01</leafValues></_>
        <_>
          <internalNodes>
            0 -1 11 -4.6488014049828053e-03</internalNodes>
          <leafValues>
            5.8985948562622070e-01 -4.1210737824440002e-01</leafValues></_></weakClassifiers></_>
    <!-- stage 1 -->
    <_>
      <maxWeakCount>5</maxWeakCount>
      <stageThreshold>-7.9753875732421875e-01</stageThreshold>
      <weakClassifiers>
        <_>
          <internalNodes>
            0 -1 14 1.3877688907086849e-02</internalNodes>
          <leafValues>
            -6.6222220659255981e-01 3.9534884691238403e-01</leafValues></_>
        <_>
          <internalNodes>
            0 -1 8 -1.0040359199047089e-01</internalNodes>
          <leafValues>
            -9.2338603734970093e-01 1.5653392672538757e-01</leafValues></_>
        <_>
          <internalNodes>
            0 -1 22 1.6238838434219360e-03</internalNodes>
          <leafValues>
            -5.1640409231185913e-01 4.0415224432945251e-01</leafValues></_>
        <_>
          <internalNodes>
            0 -1 56 7.7392614912241697e-04</internalNodes>
          <leafValues>
            3.1416299939155579e-01 -8.7944608926773071e-01</leafValues></_>
        <_>
          <internalNodes>
            0 -1 57 6.3650088850408792e-04</internalNodes>
          <leafValues>
            1.8344335258007050e-01 -8.2138830423355103e-01</leafValues></_></weakClassifiers></_>
    <!-- stage 2 -->
    <_>
      <maxWeakCount>4</maxWeakCount>
      <stageThreshold>-8.2944953441619873e-01</stageThreshold>
      <weakClassifiers>
        <_>
          <internalNodes>
            0 -1 21 9.6080405637621880e-03</internalNodes>
          <leafValues>
            -6.2711864709854126e-01 5.0000000000000000e-01</leafValues></_>
        <_>
          <internalNodes>
            0 -1 29 2.2515123710036278e-03</internalNodes>
          <leafValues>
            -4.5432886481285095e-01 4.2900842428207397e-01</leafValues></_>
        <_>
          <internalNodes>
            0 -1 36 -7.5217345729470253e-03</internalNodes>
          <leafValues>
            6.4909011125564575e-01 -2.7793169021606445e-01</leafValues></_>
        <_>
          <internalNodes>
            0 -1 45 6.6840918734669685e-03</internalNodes>
          <leafValues>
            -3.5340762138366699e-01 5.4511213302612305e-01</leafValues></_></weakClassifiers></_>
    <!-- stage 3 -->
    <_>
      <maxWeakCount>5</maxWeakCount>
      <stageThreshold>-4.3317678570747375e-01</stageThreshold>
      <weakClassifiers>
        <_>
          <internalNodes>
            0 -1 15 -5.9605976566672325e-03</internalNodes>
          <leafValues>
            2.9629629850387573e-01 -6.9158875942230225e-01</leafValues></_>
        <_>
          <internalNodes>
            0 -1 2 9.6252383664250374e-03</internalNodes>
          <leafValues>
            -3.9878639578819275e-01 6.0976761579513550e-01</leafValues></_>
        <_>
          <internalNodes>
            0 -1 25 -2.3906867951154709e-02</internalNodes>
          <leafValues>
            6.5125292539596558e-01 -4.2215830087661743e-01</leafValues></_>
        <_>
          <internalNodes>
            0 -1 18 1.4675814658403397e-02</internalNodes>
          <leafValues>
            -4.7437620162963867e-01 4.4722661375999451e-01</leafValues></_>
        <_>
          <internalNodes>
            0 -1 23 5.7034855708479881e-03</internalNodes>
          <leafValues>
            -3.1062999367713928e-01 6.3213008642196655e-01</leafValues></_></weakClassifiers></_>
    <!-- stage 4 -->
    <_>
      <maxWeakCount>5</maxWeakCount>
      <stageThreshold>-1.0521092414855957e+00</stageThreshold>
      <weakClassifiers>
        <_>
          <internalNodes>
            0 -1 20 3.1307049095630646e-02</internalNodes>
          <leafValues>
            -6.0330575704574585e-01 5.3846156597137451e-01</leafValues></_>
        <_>
          <internalNodes>
            0 -1 42 2.0361901260912418e-03</internalNodes>
          <leafValues>
            -4.9962091445922852e-01 3.8965249061584473e-01</leafValues></_>
        <_>
          <internalNodes>
            0 -1 51 -1.2083167675882578e-03</internalNodes>
          <leafValues>
            5.0628447532653809e-01 -3.7339609861373901e-01</leafValues></_>
        <_>
          <internalNodes>
            0 -1 6 -4.3785879388451576e-03</internalNodes>
          <leafValues>
            -8.3738911151885986e-01 2.1889689564704895e-01</leafValues></_>
        <_>
          <internalNodes>
            0 -1 1 -1.3236957788467407e-01</internalNodes>
          <leafValues>
            -8.8091361522674561e-01 2.0531666278839111e-01</leafValues></_></weakClassifiers></_>
    <!-- stage 5 -->
    <_>
      <maxWeakCount>7</maxWeakCount>
      <stageThreshold>-7.0468878746032715e-01</stageThreshold>
      <weakClassifiers>
        <_>
          <internalNodes>
            0 -1 35 1.3116171583533287e-02</internalNodes>
          <leafValues>
            -6.0162603855133057e-01 7.2727274894714355e-01</leafValues></_>
        <_>
          <internalNodes>
            0 -1 32 1.8544029444456100e-03</internalNodes>
          <leafValues>
            -4.5871275663375854e-01 4.5133543014526367e-01</leafValues></_>
        <_>
          <internalNodes>
            0 -1 24 -2.8412970714271069e-03</internalNodes>
          <leafValues>
            6.6302335262298584e-01 -2.3807607591152191e-01</leafValues></_>
        <_>
          <internalNodes>
            0 -1 40 -5.1517167594283819e-04</internalNodes>
          <leafValues>
            5.4976856708526611e-01 -3.7692010402679443e-01</leafValues></_>
        <_>
          <internalNodes>
            0 -1 49 -2.9684733599424362e-03</internalNodes>
          <leafValues>
            6.8254637718200684e-01 -2.8035259246826172e-01</leafValues></_>
        <_>
          <internalNodes>
            0 -1 30 4.7926381230354309e-03</internalNodes>
          <leafValues>
            -2.1689167618751526e-01 7.5617915391921997e-01</leafValues></_>
        <_>
          <internalNodes>
            0 -1 17 -3.8028259295970201e-03</internalNodes>
          <leafValues>
            6.3348263502120972e-01 -3.4325718879699707e-01</leafValues></_></weakClassifiers></_>
    <!-- stage 6 -->
    <_>
      <maxWeakCount>6</maxWeakCount>
      <stageThreshold>-8.7844300270080566e-01</stageThreshold>
      <weakClassifiers>
        <_>
          <internalNodes>
            0 -1 9 -6.4980536699295044e-02</internalNodes>
          <leafValues>
            4.0000000596046448e-01 -6.0504204034805298e-01</leafValues></_>
        <_>
          <internalNodes>
            0 -1 33 9.9016157910227776e-03</internalNodes>
          <leafValues>
            9.6315145492553711e-02 -8.4510576725006104e-01</leafValues></_>
        <_>
          <internalNodes>
            0 -1 46 4.6036662533879280e-03</internalNodes>
          <leafValues>
            -2.9368922114372253e-01 5.0782221555709839e-01</leafValues></_>
        <_>
          <internalNodes>
            0 -1 3 5.0474063027650118e-04</internalNodes>
          <leafValues>
            2.4873641133308411e-01 -7.4963235855102539e-01</leafValues></_>
        <_>
          <internalNodes>
            0 -1 0 -1.2573400745168328e-03</internalNodes>
          <leafValues>
            -7.0845341682434082e-01 1.7799511551856995e-01</leafValues></_>
        <_>
          <internalNodes>
            0 -1 26 1.1896769865415990e-04</internalNodes>
          <leafValues>
            -4.0366545319557190e-01 3.8369014859199524e-01</leafValues></_></weakClassifiers></_>
    <!-- stage 7 -->
    <_>
      <maxWeakCount>8</maxWeakCount>
      <stageThreshold>-8.8007390499114990e-01</stageThreshold>
      <weakClassifiers>
        <_>
          <internalNodes>
            0 -1 37 1.2440530583262444e-02</internalNodes>
          <leafValues>
            -5.9016394615173340e-01 5.0000000000000000e-01</leafValues></_>
        <_>
          <internalNodes>
            0 -1 55 1.2353630736470222e-03</internalNodes>
          <leafValues>
            1.4080959558486938e-01 -6.9866472482681274e-01</leafValues></_>
        <_>
          <internalNodes>
            0 -1 38 3.4195652697235346e-03</internalNodes>
          <leafValues>
            -2.6038989424705505e-01 5.9039694070816040e-01</leafValues></_>
        <_>
          <internalNodes>
            0 -1 54 -6.0566136380657554e-04</internalNodes>
          <leafValues>
            -7.3836976289749146e-01 2.3626886308193207e-01</leafValues></_>
        <_>
          <internalNodes>
            0 -1 54 7.5110845500603318e-04</internalNodes>
          <leafValues>
            1.8206644058227539e-01 -7.6536935567855835e-01</leafValues></_>
        <_>
          <internalNodes>
            0 -1 12 3.4187339246273041e-02</internalNodes>
          <leafValues>
            1.6533216834068298e-01 -8.2933920621871948e-01</leafValues></_>
        <_>
          <internalNodes>
            0 -1 13 2.3393789306282997e-02</internalNodes>
          <leafValues>
            -2.5593689084053040e-01 6.6794389486312866e-01</leafValues></_>
        <_>
          <internalNodes>
            0 -1 34 2.2763158194720745e-03</internalNodes>
          <leafValues>
            -3.7420848011970520e-01 5.2277350425720215e-01</leafValues></_></weakClassifiers></_>
    <!-- stage 8 -->
    <_>
      <maxWeakCount>5</maxWeakCount>
      <stageThreshold>-8.8635265827178955e-01</stageThreshold>
      <weakClassifiers>
        <_>
          <internalNodes>
            0 -1 39 -1.4830932952463627e-02</internalNodes>
          <leafValues>
            7.5000000000000000e-01 -5.7142859697341919e-01</leafValues></_>
        <_>
          <internalNodes>
            0 -1 53 -5.6844153732527047e-05</internalNodes>
          <leafValues>
            2.9689815640449524e-01 -5.1598018407821655e-01</leafValues></_>
        <_>
          <internalNodes>
            0 -1 52 -5.3446204401552677e-04</internalNodes>
          <leafValues>
            -9.5094901323318481e-01 1.8280267715454102e-01</leafValues></_>
        <_>
          <internalNodes>
            0 -1 43 1.7904769629240036e-02</internalNodes>
          <leafValues>
            -3.9010664820671082e-01 4.4468164443969727e-01</leafValues></_>
        <_>
          <internalNodes>
            0 -1 10 -4.6261411625891924e-05</internalNodes>
          <leafValues>
            4.8307365179061890e-01 -4.0451824665069580e-01</leafValues></_></weakClassifiers></_>
    <!-- stage 9 -->
    <_>
      <maxWeakCount>8</maxWeakCount>
      <stageThreshold>-8.3591395616531372e-01</stageThreshold>
      <weakClassifiers>
        <_>
          <internalNodes>
            0 -1 48 3.1484526116400957e-03</internalNodes>
          <leafValues>
            -6.9999998807907104e-01 -6.8181820213794708e-02</leafValues></_>
        <_>
          <internalNodes>
            0 -1 16 -7.4335355311632156e-03</internalNodes>
          <leafValues>
            4.8111230134963989e-01 -3.1245273351669312e-01</leafValues></_>
        <_>
          <internalNodes>
            0 -1 41 -4.1283615864813328e-03</internalNodes>
          <leafValues>
            5.3241848945617676e-01 -2.8189918398857117e-01</leafValues></_>
        <_>
          <internalNodes>
            0 -1 19 -9.7600612207315862e-05</internalNodes>
          <leafValues>
            3.7427577376365662e-01 -4.4966834783554077e-01</leafValues></_>
        <_>
          <internalNodes>
            0 -1 5 6.8439529277384281e-03</internalNodes>
          <leafValues>
            -2.3353308439254761e-01 5.9015375375747681e-01</leafValues></_>
        <_>
          <internalNodes>
            0 -1 4 5.4910197854042053e-02</internalNodes>
          <leafValues>
            -2.5604736804962158e-01 5.6640952825546265e-01</leafValues></_>
        <_>
          <internalNodes>
            0 -1 47 7.1114837191998959e-04</internalNodes>
          <leafValues>
            2.5857368111610413e-01 -6.3134402036666870e-01</leafValues></_>
        <_>
          <internalNodes>
            0 -1 44 1.8246695399284363e-03</internalNodes>
          <leafValues>
            -2.4918843805789948e-01 7.3866146802902222e-01</leafValues></_></weakClassifiers></_></stages>
  <features>
    <_>
      <rects>
        <_>
          0 0 2 8 -1.</_>
        <_>
          1 0 1 8 2.</_></rects>
      <tilted>0</tilted></_>
    <_>
      <rects>
        <_>
          0 2 24 22 -1.</_>
        <_>
          0 2 12 11 2.</_>
        <_>
          12 13 12 11 2.</_></rects>
      <tilted>0</tilted></_>
    <_>
      <rects>
        <_>
          0 3 24 3 -1.</_>
        <_>
          0 4 24 1 3.</_></rects>
      <tilted>0</tilted></_>
    <_>
      <rects>
        <_>
          0 5 2 2 -1.</_>
        <_>
          1 5 1 2 2.</_></rects>
      <tilted>0</tilted></_>
    <_>
      <rects>
        <_>
          0 10 12 12 -1.</_>
        <_>
          0 14 12 4 3.</_></rects>
      <tilted>0</tilted></_>
    <_>
      <rects>
        <_>
          0 15 1 8 -1.</_>
        <_>
          0 19 1 4 2.</_></rects>
      <tilted>0</tilted></_>
    <_>
      <rects>
        <_>
          0 23 18 1 -1.</_>
        <_>
          6 23 6 1 3.</_></rects>
      <tilted>0</tilted></_>
    <_>
      <rects>
        <_>
          1 2 3 1 -1.</_>
        <_>
          2 2 1 1 3.</_></rects>
      <tilted>0</tilted></_>
    <_>
      <rects>
        <_>
          1 2 22 20 -1.</_>
        <_>
          1 12 22 10 2.</_></rects>
      <tilted>0</tilted></_>
    <_>
      <rects>
        <_>
          1 12 12 12 -1.</_>
        <_>
          7 12 6 12 2.</_></rects>
      <tilted>0</tilted></_>
    <_>
      <rects>
        <_>
          1 18 2 2 -1.</_>
        <_>
          1 18 1 1 2.</_>
        <_>
          2 19 1 1 2.</_></rects>
      <tilted>0</tilted></_>
    <_>
      <rects>
        <_>
          2 11 10 1 -1.</_>
        <_>
          7 11 5 1 2.</_></rects>
      <tilted>0</tilted></_>
    <_>
      <rects>
        <_>
          3 0 14 20 -1.</_>
        <_>
          10 0 7 20 2.</_></rects>
      <tilted>0</tilted></_>
    <_>
      <rects>
        <_>
          3 20 15 3 -1.</_>
        <_>
          8 20 5 3 3.</_></rects>
      <tilted>0</tilted></_>
    <_>
      <rects>
        <_>
          4 5 19 3 -1.</_>
        <_>
          4 6 19 1 3.</_></rects>
      <tilted>0</tilted></_>
    <_>
      <rects>
        <_>
          6 9 9 1 -1.</_>
        <_>
          9 9 3 1 3.</_></rects>
      <tilted>0</tilted></_>
    <_>
      <rects>
        <_>
          6 9 11 3 -1.</_>
        <_>
          6 10 11 1 3.</_></rects>
      <tilted>0</tilted></_>
    <_>
      <rects>
        <_>
          6 10 6 3 -1.</_>
        <_>
          6 11 6 1 3.</_></rects>
      <tilted>0</tilted></_>
    <_>
      <rects>
        <_>
          6 12 5 12 -1.</_>
        <_>
          6 16 5 4 3.</_></rects>
      <tilted>0</tilted></_>
    <_>
      <rects>
        <_>
          7 4 2 2 -1.</_>
        <_>
          8 4 1 2 2.</_></rects>
      <tilted>0</tilted></_>
    <_>
      <rects>
        <_>
          7 8 6 10 -1.</_>
        <_>
          7 8 3 5 2.</_>
        <_>
          10 13 3 5 2.</_></rects>
      <tilted>0</tilted></_>
    <_>
      <rects>
        <_>
          7 15 13 2 -1.</_>
        <_>
          7 16 13 1 2.</_></rects>
      <tilted>0</tilted></_>
    <_>
      <rects>
        <_>
          8 0 2 6 -1.</_>
        <_>
          8 2 2 2 3.</_></rects>
      <tilted>0</tilted></_>
    <_>
      <rects>
        <_>
          8 6 6 6 -1.</_>
        <_>
          10 6 2 6 3.</_></rects>
      <tilted>0</tilted></_>
    <_>
      <rects>
        <_>
          8 7 8 2 -1.</_>
        <_>
          8 7 4 1 2.</_>
        <_>
          12 8 4 1 2.</_></rects>
      <tilted>0</tilted></_>
    <_>
      <rects>
        <_>
          8 10 12 9 -1.</_>
        <_>
          12 10 4 9 3.</_></rects>
      <tilted>0</tilted></_>
    <_>
      <rects>
        <_>
          8 11 2 4 -1.</_>
        <_>
          8 11 1 2 2.</_>
        <_>
          9 13 1 2 2.</_></rects>
      <tilted>0</tilted></_>
    <_>
      <rects>
        <_>
          9 4 13 12 -1.</_>
        <_>
          9 8 13 4 3.</_></rects>
      <tilted>0</tilted></_>
    <_>
      <rects>
        <_>
          9 8 6 16 -1.</_>
        <_>
          9 16 6 8 2.</_></rects>
      <tilted>0</tilted></_>
    <_>
      <rects>
        <_>
          9 13 5 3 -1.</_>
        <_>
          9 14 5 1 3.</_></rects>
      <tilted>0</tilted></_>
    <_>
      <rects>
        <_>
          10 4 4 4 -1.</_>
        <_>
          12 4 2 4 2.</_></rects>
      <tilted>0</tilted></_>
    <_>
      <rects>
        <_>
          10 16 14 8 -1.</_>
        <_>
          10 20 14 4 2.</_></rects>
      <tilted>0</tilted></_>
    <_>
      <rects>
        <_>
          11 4 2 6 -1.</_>
        <_>
          11 4 1 3 2.</_>
        <_>
          12 7 1 3 2.</_></rects>
      <tilted>0</tilted></_>
    <_>
      <rects>
        <_>
          11 5 8 6 -1.</_>
        <_>
          11 8 8 3 2.</_></rects>
      <tilted>0</tilted></_>
    <_>
      <rects>
        <_>
          11 8 13 2 -1.</_>
        <_>
          11 9 13 1 2.</_></rects>
      <tilted>0</tilted></_>
    <_>
      <rects>
        <_>
          12 4 6 4 -1.</_>
        <_>
          12 4 3 2 2.</_>
        <_>
          15 6 3 2 2.</_></rects>
      <tilted>0</tilted></_>
    <_>
      <rects>
        <_>
          12 10 12 3 -1.</_>
        <_>
          12 11 12 1 3.</_></rects>
      <tilted>0</tilted></_>
    <_>
      <rects>
        <_>
          12 13 6 5 -1.</_>
        <_>
          14 13 2 5 3.</_></rects>
      <tilted>0</tilted></_>
    <_>
      <rects>
        <_>
          12 14 4 4 -1.</_>
        <_>
          12 14 2 2 2.</_>
        <_>
          14 16 2 2 2.</_></rects>
      <tilted>0</tilted></_>
    <_>
      <rects>
        <_>
          13 2 6 4 -1.</_>
        <_>
          13 2 3 2 2.</_>
        <_>
          16 4 3 2 2.</_></rects>
      <tilted>0</tilted></_>
    <_>
      <rects>
        <_>
          14 16 4 2 -1.</_>
        <_>
          16 16 2 2 2.</_></rects>
      <tilted>0</tilted></_>
    <_>
      <rects>
        <_>
          15 0 2 24 -1.</_>
        <_>
          16 0 1 24 2.</_></rects>
      <tilted>0</tilted></_>
    <_>
      <rects>
        <_>
          15 0 6 4 -1.</_>
        <_>
          15 2 6 2 2.</_></rects>
      <tilted>0</tilted></_>
    <_>
      <rects>
        <_>
          15 5 8 18 -1.</_>
        <_>
          15 5 4 9 2.</_>
        <_>
          19 14 4 9 2.</_></rects>
      <tilted>0</tilted></_>
    <_>
      <rects>
        <_>
          15 18 2 4 -1.</_>
        <_>
          16 18 1 4 2.</_></rects>
      <tilted>0</tilted></_>
    <_>
      <rects>
        <_>
          16 9 6 12 -1.</_>
        <_>
          16 9 3 6 2.</_>
        <_>
          19 15 3 6 2.</_></rects>
      <tilted>0</tilted></_>
    <_>
      <rects>
        <_>
          16 17 2 4 -1.</_>
        <_>
          16 19 2 2 2.</_></rects>
      <tilted>0</tilted></_>
    <_>
      <rects>
        <_>
          17 0 6 1 -1.</_>
        <_>
          19 0 2 1 3.</_></rects>
      <tilted>0</tilted></_>
    <_>
      <rects>
        <_>
          17 1 6 6 -1.</_>
        <_>
          17 1 3 3 2.</_>
        <_>
          20 4 3 3 2.</_></rects>
      <tilted>0</tilted></_>
    <_>
      <rects>
        <_>
          17 3 4 3 -1.</_>
        <_>
          17 4 4 1 3.</_></rects>
      <tilted>0</tilted></_>
    <_>
      <rects>
        <_>
          18 19 3 1 -1.</_>
        <_>
          19 19 1 1 3.</_></rects>
      <tilted>0</tilted></_>
    <_>
      <rects>
        <_>
          20 2 2 10 -1.</_>
        <_>
          20 2 1 5 2.</_>
        <_>
          21 7 1 5 2.</_></rects>
      <tilted>0</tilted></_>
    <_>
      <rects>
        <_>
          20 22 3 2 -1.</_>
        <_>
          21 22 1 2 3.</_></rects>
      <tilted>0</tilted></_>
    <_>
      <rects>
        <_>
          21 12 2 4 -1.</_>
        <_>
          22 12 1 4 2.</_></rects>
      <tilted>0</tilted></_>
    <_>
      <rects>
        <_>
          21 18 3 5 -1.</_>
        <_>
          22 18 1 5 3.</_></rects>
      <tilted>0</tilted></_>
    <_>
      <rects>
        <_>
          22 1 2 8 -1.</_>
        <_>
          23 1 1 8 2.</_></rects>
      <tilted>0</tilted></_>
    <_>
      <rects>
        <_>
          22 15 2 5 -1.</_>
        <_>
          23 15 1 5 2.</_></rects>
      <tilted>0</tilted></_>
    <_>
      <rects>
        <_>
          22 18 2 6 -1.</_>
        <_>
          22 18 1 3 2.</_>
        <_>
          23 21 1 3 2.</_></rects>
      <tilted>0</tilted></_></features></cascade>
</opencv_storage>
