<?xml version="1.0"?>
<opencv_storage>
<stage7>
  <maxWeakCount>8</maxWeakCount>
  <stageThreshold>-8.8007390499114990e-01</stageThreshold>
  <weakClassifiers>
    <_>
      <internalNodes>
        0 -1 126680 1.2440530583262444e-02</internalNodes>
      <leafValues>
        -5.9016394615173340e-01 5.0000000000000000e-01</leafValues></_>
    <_>
      <internalNodes>
        0 -1 161288 1.2353630736470222e-03</internalNodes>
      <leafValues>
        1.4080959558486938e-01 -6.9866472482681274e-01</leafValues></_>
    <_>
      <internalNodes>
        0 -1 126902 3.4195652697235346e-03</internalNodes>
      <leafValues>
        -2.6038989424705505e-01 5.9039694070816040e-01</leafValues></_>
    <_>
      <internalNodes>
        0 -1 161108 -6.0566136380657554e-04</internalNodes>
      <leafValues>
        -7.3836976289749146e-01 2.3626886308193207e-01</leafValues></_>
    <_>
      <internalNodes>
        0 -1 161108 7.5110845500603318e-04</internalNodes>
      <leafValues>
        1.8206644058227539e-01 -7.6536935567855835e-01</leafValues></_>
    <_>
      <internalNodes>
        0 -1 38530 3.4187339246273041e-02</internalNodes>
      <leafValues>
        1.6533216834068298e-01 -8.2933920621871948e-01</leafValues></_>
    <_>
      <internalNodes>
        0 -1 49202 2.3393789306282997e-02</internalNodes>
      <leafValues>
        -2.5593689084053040e-01 6.6794389486312866e-01</leafValues></_>
    <_>
      <internalNodes>
        0 -1 118612 2.2763158194720745e-03</internalNodes>
      <leafValues>
        -3.7420848011970520e-01 5.2277350425720215e-01</leafValues></_></weakClassifiers></stage7>
</opencv_storage>
