<?xml version="1.0"?>
<opencv_storage>
<stage9>
  <maxWeakCount>8</maxWeakCount>
  <stageThreshold>-8.3591395616531372e-01</stageThreshold>
  <weakClassifiers>
    <_>
      <internalNodes>
        0 -1 148757 3.1484526116400957e-03</internalNodes>
      <leafValues>
        -6.9999998807907104e-01 -6.8181820213794708e-02</leafValues></_>
    <_>
      <internalNodes>
        0 -1 77227 -7.4335355311632156e-03</internalNodes>
      <leafValues>
        4.8111230134963989e-01 -3.1245273351669312e-01</leafValues></_>
    <_>
      <internalNodes>
        0 -1 139314 -4.1283615864813328e-03</internalNodes>
      <leafValues>
        5.3241848945617676e-01 -2.8189918398857117e-01</leafValues></_>
    <_>
      <internalNodes>
        0 -1 83528 -9.7600612207315862e-05</internalNodes>
      <leafValues>
        3.7427577376365662e-01 -4.4966834783554077e-01</leafValues></_>
    <_>
      <internalNodes>
        0 -1 11500 6.8439529277384281e-03</internalNodes>
      <leafValues>
        -2.3353308439254761e-01 5.9015375375747681e-01</leafValues></_>
    <_>
      <internalNodes>
        0 -1 9286 5.4910197854042053e-02</internalNodes>
      <leafValues>
        -2.5604736804962158e-01 5.6640952825546265e-01</leafValues></_>
    <_>
      <internalNodes>
        0 -1 148382 7.1114837191998959e-04</internalNodes>
      <leafValues>
        2.5857368111610413e-01 -6.3134402036666870e-01</leafValues></_>
    <_>
      <internalNodes>
        0 -1 143741 1.8246695399284363e-03</internalNodes>
      <leafValues>
        -2.4918843805789948e-01 7.3866146802902222e-01</leafValues></_></weakClassifiers></stage9>
</opencv_storage>
