<?xml version="1.0"?>
<opencv_storage>
<stage8>
  <maxWeakCount>5</maxWeakCount>
  <stageThreshold>-8.8635265827178955e-01</stageThreshold>
  <weakClassifiers>
    <_>
      <internalNodes>
        0 -1 129104 -1.4830932952463627e-02</internalNodes>
      <leafValues>
        7.5000000000000000e-01 -5.7142859697341919e-01</leafValues></_>
    <_>
      <internalNodes>
        0 -1 160833 -5.6844153732527047e-05</internalNodes>
      <leafValues>
        2.9689815640449524e-01 -5.1598018407821655e-01</leafValues></_>
    <_>
      <internalNodes>
        0 -1 159722 -5.3446204401552677e-04</internalNodes>
      <leafValues>
        -9.5094901323318481e-01 1.8280267715454102e-01</leafValues></_>
    <_>
      <internalNodes>
        0 -1 141241 1.7904769629240036e-02</internalNodes>
      <leafValues>
        -3.9010664820671082e-01 4.4468164443969727e-01</leafValues></_>
    <_>
      <internalNodes>
        0 -1 25009 -4.6261411625891924e-05</internalNodes>
      <leafValues>
        4.8307365179061890e-01 -4.0451824665069580e-01</leafValues></_></weakClassifiers></stage8>
</opencv_storage>
